59 16
Israelites 0.1471596 -0.13120432 -0.27120864 -0.054895476 -0.01071369 -0.08986589 -0.019571543 0.22754571 0.15144949 0.13817994 0.057443965 -0.0004624972 -0.021179868 0.048248913 0.033155646 -0.43366596
YHWH 0.21872465 -0.16868094 -0.3422352 -0.0030145394 -0.047533736 -0.073260866 -0.029836444 0.29198167 0.21519332 0.19000642 0.057115506 -0.03608077 -0.00738262 0.040536057 0.046859935 -0.50356174
sojourner 0.17032504 -0.10677345 -0.25457528 -0.027876679 -0.045251675 -0.09447744 -0.034700103 0.23870519 0.13822126 0.11617825 0.013542857 -0.05428056 0.00013288196 0.018747699 0.0337604 -0.41569138
an_Israelite 0.111786336 -0.12225431 -0.24140806 -0.037110697 -0.03756014 -0.08129517 -0.052200247 0.18727158 0.1542631 0.13331258 0.011624681 -0.008118488 -0.049004644 0.019352287 0.062157083 -0.36917043
Aaron 0.16209656 -0.10659434 -0.28437966 -0.02135548 -0.026800403 -0.089759536 -0.017618658 0.19851053 0.10287191 0.111639455 0.016814038 -0.028113483 -0.004521876 0.024610054 0.03506534 -0.3836743
Aaron's_sons 0.08579198 -0.13662073 -0.2433113 -0.026823306 0.011231064 -0.021419158 -0.025762381 0.16638266 0.15214074 0.08051936 0.07307925 -0.045317896 -0.054345187 -0.0045156404 0.05608841 -0.33002642
2msg 0.09998063 -0.09328449 -0.26924008 -0.061961785 -0.014661823 -0.024385609 -0.016852973 0.22044514 0.09394386 0.067535244 0.073850095 0.0042187218 -0.061158076 0.019165548 0.06395455 -0.35273895
idols 0.11348696 -0.08127243 -0.21623157 -0.020245243 0.0127209015 -0.025081223 0.010490271 0.13330549 0.07165525 0.0803661 0.01294471 -0.032675993 -0.05904545 0.005665955 0.03476169 -0.25917876
corpse 0.056167938 -0.012193512 -0.103994064 -0.011494831 -0.006884787 -0.0075841644 -0.038335666 0.06260172 0.046692256 0.06218589 0.024424847 0.016099665 0.017449217 -0.010154437 0.0114383055 -0.11191629
woman_in_menstruation 0.05340815 -0.039400432 -0.08070625 -0.01777632 0.010762152 -0.032333788 0.008911901 0.075566754 0.03515834 0.053676862 0.040088937 0.018634338 -0.027106235 0.013282159 -0.019706665 -0.091297
mother 0.025371674 -0.052614596 -0.04429741 -0.021870265 0.008068043 -0.041371055 -0.024688916 0.06861631 0.03677513 0.05609065 0.014968919 0.012573075 0.0043064724 -0.015567248 0.038005415 -0.10969349
father 0.03479898 -0.01140928 -0.04126964 -0.014834077 -0.032754835 -0.027711175 0.015640624 0.019216796 0.060119875 0.043441586 0.03998362 0.0025710452 -0.037049904 0.021653429 0.03041901 -0.11834252
father's_wife 0.006920862 -0.017133066 -0.0731909 0.015858222 -0.021832125 -0.04046155 -0.009940528 0.031676278 0.017691089 0.029394157 -0.007847888 0.017140476 -0.017690213 0.017454084 0.026858732 -0.065729216
human_being 0.075576805 -0.069504194 -0.13728774 0.010057227 -0.00051751436 -0.060914002 -0.022702908 0.15373503 0.09995347 0.05126441 0.045752626 -0.043238036 -0.0030004168 0.041204665 0.016601432 -0.25497907
aunt-in-law 0.03525331 0.004750135 -0.06576723 0.021235937 -0.013423352 -0.024036443 0.0072660204 0.021602241 0.033334102 0.0155816795 0.041031238 -0.015746815 0.006231369 0.0002602071 0.0126275895 -0.07181219
offspring 0.007627253 -0.0468043 -0.06366514 -0.020871455 -0.026193528 -0.038387407 -0.0037732986 0.058867548 0.024751203 0.021323552 0.019934706 0.003745471 -0.008106594 0.0023495913 -0.021363216 -0.06650601
daughter-in-law 0.0021975844 -0.002318407 -0.07043027 -0.029303318 -0.02157764 -0.018188132 0.027037047 0.059497863 0.021127326 -0.0022058762 0.0314012 0.0021679448 -0.025932504 0.009596975 0.0022314326 -0.06345978
widowed/expelled/defiled_woman 0.024701448 -0.04082994 -0.10204855 0.017932802 0.009849099 -0.0134343635 0.012329494 0.031334568 0.024047004 0.035131827 0.032762595 -0.033073075 0.01648607 0.02119004 -0.008284555 -0.100413606
fellow's_wife 0.07223911 -0.074270844 -0.18349777 -0.04063949 -0.039817013 -0.060520068 -0.014459471 0.14700826 0.09066497 0.056255605 0.06936182 -0.015175273 -0.018681342 0.040031947 0.03266126 -0.26841074
sister 0.09236451 -0.087234125 -0.16026048 0.01001835 0.009116502 -0.013052071 -0.0060467273 0.1595605 0.084527865 0.096600935 -0.0013245718 -0.047630817 -0.041825805 0.0029198632 0.020634122 -0.25890833
woman_and_her_mother 0.015080668 -0.023122376 -0.07024486 -0.021278553 0.025612751 0.0044011697 -0.0087365 0.058303103 -0.007519401 0.031485952 -0.021372251 0.009090562 -0.03280939 -0.017445652 0.025963504 -0.08690345
blasphemer 0.10514842 -0.09709544 -0.19566467 0.0031387692 0.0006014796 -0.054014675 -0.014150174 0.15272005 0.10446242 0.06748182 0.019421153 -0.045492228 -0.043758225 0.043922916 -0.0023989393 -0.21714592
brother 0.052532487 -0.053590868 -0.17517786 -0.04182162 0.006604058 -0.02214147 -0.017371334 0.07960253 0.07236003 0.057197418 0.033460103 -0.007902287 -0.027221533 0.020907214 0.023256864 -0.19838746
foreign_nations 0.08790841 -0.09497404 -0.15888275 0.0009778521 -0.019042872 -0.023663642 0.0077740084 0.09526064 0.09563173 0.082878664 0.0025020177 -0.0030625279 -0.017584614 0.030551067 0.014112767 -0.18812941
Moses 0.12476446 -0.08142222 -0.18889514 -0.020054018 0.021670092 -0.019115346 -0.040995188 0.12186433 0.10165199 0.09827647 0.03806222 -0.03252306 -0.052462414 0.042866897 0.054401696 -0.28465307
kinsmen 0.09454032 -0.06261186 -0.15134434 -0.027512554 0.0064590946 -0.025742047 -0.021186676 0.09483541 0.06751133 0.025926214 0.039381143 -0.0361909 -0.0032248066 -0.020019123 0.024715412 -0.20045577
remnants 0.08848613 -0.06725571 -0.14241117 0.018765911 0.026631229 -0.033682223 -0.047715902 0.1005608 0.10100589 0.10022921 0.03581662 -0.040209945 0.0043508937 0.014327429 0.046540614 -0.16614227
male 0.034507293 0.00041272037 -0.0462908 0.015097065 0.0038015984 -0.021865882 -0.016840706 0.03900353 0.027524564 0.04411378 0.019312447 -0.007148993 -0.01744086 -0.0050289175 -0.013382524 -0.022692693
relative 0.009065395 0.009368801 -0.07527571 -0.02335066 -0.01344652 0.011936216 -0.010585744 0.055883806 0.03728775 0.0421265 0.013092069 -0.0034368061 0.019593626 0.0043118405 -0.0013351351 -0.0792081
clan 0.045634 -0.026872123 -0.06969163 -0.03285785 -0.008078994 -0.032844532 -0.034586266 0.012491747 0.026640669 0.035580434 -0.0132393865 -0.0025845678 -0.030427499 0.02005306 -0.006303105 -0.088013835
2mpl 0.0048029004 -0.025881512 -0.05195686 -0.017755749 0.0031637163 0.01166924 0.0013744001 0.026787763 0.011495806 0.036260378 0.029732246 0.02202361 -0.023166778 0.0148112485 -0.010971406 -0.0639245
granddaughter 0.030090822 -0.0030313784 -0.042739384 0.0009206257 -0.02555561 0.021870106 -0.02580299 0.04729781 0.026994266 -0.007475405 0.03702888 0.0049717305 -0.025139531 0.015152404 0.0010318889 -0.051749315
group_of_people 0.055112608 -0.059708565 -0.14039601 -0.040821824 -0.036163937 -0.031120995 -0.028772635 0.1262608 0.04948207 0.04429212 0.025236255 -0.010730864 -0.031033834 0.013548698 -0.0015519557 -0.16215324
aunt 0.0038673638 -0.014432984 -0.04419151 -0.026094627 -0.016706891 -0.008748241 0.023295946 0.040410973 0.03273831 0.018363636 0.022065874 0.024680397 -0.03440608 -0.009527638 -0.017579937 -0.015364216
handmaid 0.017391324 -0.02599667 -0.04568896 0.0063030072 -0.013059376 0.01435948 0.017184155 0.01583928 -0.020641988 -0.004096121 -0.0030748034 -0.008646745 0.024881253 0.029240137 0.007478631 -0.0045361817
slave -0.021497386 -0.018104667 -0.018168697 -0.012050594 0.01597951 -0.0058922037 -0.0131108705 0.039979633 0.0054006847 0.024678193 -0.0072393734 -0.01755026 0.004411347 0.02614662 -0.015809536 -0.014980939
virgin 0.017423842 -0.0125099085 -0.04884429 -0.015044292 -0.01794835 0.007798567 -0.027921451 0.041016556 0.01982764 0.02813917 0.016087053 0.028102858 0.025751207 -0.015860103 -0.013492276 -0.018760815
purchaser -0.011696709 -0.036548894 -0.029929519 0.024263391 0.02671934 0.01156475 0.030042073 0.0072762617 -0.0058915266 -0.016192038 -0.00011921999 -0.0046400563 -0.012695029 -0.0027155578 -0.009001321 -0.0526655
sons_of_sojourners 0.014576007 0.009403296 -0.04884963 0.020845072 -0.023235735 0.019635517 -0.011641007 0.008213363 0.023020029 -0.021379577 0.027650386 0.016786946 -0.010685522 0.016063305 0.014015635 -0.022936285
man/woman -0.021489572 0.011192167 0.006209033 -0.029036682 0.013457195 -0.005549148 0.014080627 0.029356131 -0.02166062 0.018947685 -0.024910375 -0.028083688 0.023530278 0.0073476597 0.02458173 -0.025537377
children 0.02035965 0.0060239746 -0.0149471145 -0.022909524 0.024952881 0.013959383 -0.0008353404 -0.010698775 0.008644449 0.035513338 0.028280038 -0.031985436 -0.004505133 0.025070215 -0.015239889 -0.023901882
sister_of_woman 0.03154379 0.0043706447 -0.0006303657 -0.00029685453 0.0045940722 0.020045364 0.004990948 0.0244276 -0.015278304 -0.015534323 -0.0060030404 0.02179756 0.023186477 0.027379178 0.031522825 -0.0045239003
poor 0.01537369 -0.005495704 -0.017043905 -0.020085178 -0.021399466 -0.02968643 -0.016989645 0.009564621 0.028575484 -0.0034458244 -0.0038076953 -0.017051836 0.027938357 -0.00993659 -0.021160373 0.0048815063
daughter 0.062702045 -0.049141757 -0.16485173 0.006695748 -0.018741935 0.0019619802 -0.013043599 0.110799365 0.06876767 0.06638456 0.0032540618 -0.00037713797 -0.0020729026 0.025450926 -0.006004639 -0.18402913
woman -0.021374106 0.018676683 -0.01096759 -0.012606228 0.01939513 -0.012462204 -0.021978045 0.028252194 0.0071031814 0.02189951 -0.002155786 -0.020604527 -0.0041330615 0.029011888 -0.0067858035 0.0052593458
blind -0.014564881 0.023194507 -0.01452739 -0.026461145 -0.0042553246 0.01854431 -0.013577819 0.029058533 -0.006590111 0.011115557 -0.0008113859 0.011801172 -0.012107744 -0.018382054 -0.001776942 -0.008103951
elderly 0.020896731 -0.011051626 -0.03429336 0.022175623 -0.026067736 -0.012308206 -0.009075225 0.009293696 -0.010538124 -0.01041046 0.018933186 0.01849837 -0.01018822 0.027370274 0.016764935 -0.003973689
granddaughter_of_woman -0.014376227 -0.0013166005 -0.0068232175 0.02185498 -0.02184376 0.0038131783 -0.007246316 -0.002091419 0.020556385 0.005532654 -0.018451296 0.011273564 -0.000567865 -0.021631327 0.003145141 -0.0023948802
rich 0.013736949 -0.025415175 -0.025470538 0.0031766668 -0.025250945 -0.01705291 -0.023775624 0.02717785 -0.026026623 0.03253064 -0.028664595 0.0142355 0.026361028 -0.006566422 -0.0038211327 -0.011026345
deaf 0.012796804 -0.033915672 0.00912179 0.028171502 -0.0042991987 -0.032288607 -0.024612686 0.022908645 0.0040904293 -0.0071698865 -0.0028116328 -0.023905052 0.0037103097 -0.011032482 0.019975645 -0.034551293
woman_and_her_daughter 0.019489592 -0.020954648 -0.021257343 -0.017176043 -0.02329711 -0.032147855 -0.017568475 0.0033473799 0.0064493953 -0.025908183 -0.010659835 0.003718829 -0.0009554915 0.015041495 0.0025224453 -0.027905034
witnesses -0.030939773 -0.028613975 -0.029990382 -0.013341137 -0.025572695 -0.024228232 0.012572625 -0.015067415 -0.019835403 -0.0036539454 0.008849539 0.025189769 -0.026608685 -0.021998541 -0.018606206 0.019869724
brother's_uncle -0.016800933 -0.010388002 -0.022518013 0.025763625 0.019887712 -0.005829143 0.017792093 0.013883173 0.025340246 -0.01354691 -0.003020256 -0.0107841045 -0.0010386935 -0.01165392 -0.029771788 0.003867596
no-one -0.013533291 0.014572794 -0.02653078 0.027107477 -0.02533764 0.028240368 -0.0044832965 0.0011885026 0.01559621 0.007192119 -0.026459306 0.028593745 -0.0110132005 0.013219804 -0.02124286 0.024142932
lay-person 0.029919978 0.012701817 0.015546395 0.0046276706 0.028890893 -0.030021204 -0.028915059 -0.020158166 0.026643725 -0.009709697 0.016650751 0.03106356 -0.015765177 0.0020167562 0.015761374 0.0132178655
brother's_brother -0.010916336 -0.00081068923 0.0020209695 -0.022133462 -0.00610404 0.011038255 -0.019958567 -0.023124147 0.022117443 -0.008617377 0.009978783 -0.00080194144 0.017578918 0.016478345 -0.02628251 0.016356112
husband 0.02029547 -0.01668156 -0.019202253 0.019725513 0.030406583 -0.009047531 0.005093808 -0.022424974 -0.0016157698 -0.010717711 -0.003173725 -0.030113772 -0.008240404 0.0028125318 0.009043136 -0.019215016
son_of_brother -0.009296471 -0.0053500673 0.0008849443 -0.0062578176 0.02535041 0.02122646 -0.0066755624 -0.001089157 0.018491419 0.021424452 0.01955962 0.012892028 0.022654135 0.030818267 0.013476022 0.016313855
man 0.016217032 -0.017491767 0.006219391 0.0034574124 0.0023666446 -0.025600372 0.02067511 -0.028608201 -0.016767042 -0.0119215455 -0.018934261 -0.0019116169 -0.028542377 -0.03083267 -0.02427505 -0.0067350203
