59 16
Israelites 0.15786552 -0.147336 -0.35869431 -0.0736919 0.02570675 -0.089382455 0.03880315 0.24296679 0.09614944 0.0878183 0.07464411 0.00888186 -0.077513725 0.035895273 0.05292437 -0.4882384
YHWH 0.18943128 -0.15138544 -0.35356787 -0.01369768 -0.010341214 -0.053165503 0.030830186 0.24931547 0.12479755 0.10509439 0.06483115 -0.018093772 -0.052374195 0.02119277 0.05685426 -0.44916147
sojourner 0.13941935 -0.08352024 -0.24766469 -0.035233203 -0.016430637 -0.07513617 0.012360126 0.19186483 0.06137776 0.051853966 0.018513516 -0.03398239 -0.033236682 0.0028050875 0.03786264 -0.34909382
an_Israelite 0.10982526 -0.12521634 -0.28715268 -0.05136942 -0.0088935625 -0.07468374 -0.0047572283 0.17945328 0.099450216 0.08528087 0.023975791 0.008084369 -0.0947424 0.007817967 0.07854934 -0.37553567
Aaron 0.16656409 -0.11102444 -0.34056786 -0.03330186 -8.7086955e-05 -0.08839802 0.033296775 0.19408299 0.04259645 0.06353511 0.02242679 -0.014455368 -0.048831545 0.015459675 0.05207848 -0.39800626
2MSg 0.090199 -0.09143919 -0.2976189 -0.07198549 0.015413767 -0.019456865 0.02148602 0.20476899 0.03928055 0.022852426 0.07997408 0.016613321 -0.096127085 0.007538593 0.07620258 -0.34618875
Aaron's_sons 0.081536464 -0.13981628 -0.28283477 -0.038636696 0.038721953 -0.010728395 0.016411478 0.16244827 0.10579479 0.040219128 0.082453705 -0.03111637 -0.09452018 -0.013756011 0.07016216 -0.33587798
idols 0.115737475 -0.07434908 -0.2401715 -0.024408957 0.031722546 -0.017103732 0.05040724 0.117995694 0.026256159 0.041220345 0.016073622 -0.025115691 -0.08736199 -0.00223839 0.041991208 -0.25660533
corpse 0.05862714 -0.015120502 -0.12200325 -0.016424716 0.0011206438 -0.0076956903 -0.022714755 0.06486987 0.030559093 0.048349258 0.026450453 0.018842688 0.0030447945 -0.012036385 0.0156184975 -0.11981442
woman_in_menstruation 0.05301233 -0.03888039 -0.09186939 -0.02311126 0.017908465 -0.032897968 0.021300554 0.07131351 0.019811405 0.04020608 0.0447923 0.02294843 -0.036039483 0.01063114 -0.015061521 -0.092776604
mother 0.02157495 -0.050122272 -0.046601195 -0.024756161 0.013174309 -0.042082068 -0.015147746 0.061354715 0.021378051 0.041136313 0.016648564 0.015453234 -0.003657817 -0.018188853 0.04044626 -0.10235156
sister 0.08470785 -0.08718138 -0.17552017 0.0018709791 0.032545492 -0.0082855895 0.023083348 0.14358474 0.04481169 0.061566867 0.0019046393 -0.04032672 -0.07175435 -0.007219396 0.033229597 -0.24408564
father 0.029196683 -0.005700655 -0.035133496 -0.014875835 -0.026479723 -0.02480357 0.027394649 0.0059885676 0.042216685 0.028126575 0.038644936 0.005520473 -0.04305762 0.01843405 0.029800627 -0.09936073
offspring 0.0074698967 -0.04777271 -0.06930727 -0.02304878 -0.021027824 -0.04018728 0.005868697 0.056554094 0.012658947 0.009587358 0.020425653 0.005853585 -0.0151738245 0.00071864 -0.01913545 -0.06514935
fellow's_wife 0.061003197 -0.069113515 -0.200093 -0.051588368 -0.011173351 -0.05634212 0.01820818 0.12750717 0.043629497 0.019935718 0.071657136 -0.0040669776 -0.056382008 0.027432468 0.04500971 -0.2543972
aunt-in-law 0.02859454 0.010017663 -0.06283346 0.018116564 -0.004262038 -0.020523723 0.01792974 0.009706966 0.01427069 -0.0006905174 0.041632384 -0.0129335085 -0.001587312 -0.003499894 0.015059503 -0.05601862
father's_wife -0.0024033457 -0.009515043 -0.06400429 0.015279086 -0.015071484 -0.035894644 0.00024993834 0.016000338 -0.0014927436 0.013524992 -0.00939467 0.020817615 -0.02274734 0.013326635 0.027049331 -0.04195267
daughter-in-law -0.004919924 0.0024492715 -0.061143637 -0.029293362 -0.014529773 -0.014149237 0.034674317 0.044504136 0.0062514516 -0.015399442 0.029487535 0.0043143793 -0.030807886 0.0060909702 0.0033176248 -0.040596034
brother 0.048198458 -0.05361561 -0.19600745 -0.049905043 0.026252186 -0.022208795 0.008052648 0.07167144 0.03933086 0.028520463 0.040595267 -0.0028646095 -0.052523542 0.014605104 0.03246164 -0.19808103
human_being 0.0849445 -0.07885376 -0.17908497 0.0011720242 0.019564152 -0.07002195 0.011583333 0.16076891 0.06638955 0.019074883 0.054718748 -0.041192513 -0.031662818 0.038763337 0.0255966 -0.27894104
widowed/expelled/defiled_woman 0.02111725 -0.037973445 -0.111186326 0.011715875 0.016870432 -0.013375445 0.027448963 0.028592953 0.0018177307 0.016590703 0.033831205 -0.02836411 0.005842072 0.01845573 -0.006427633 -0.099793635
kinsmen 0.11196318 -0.079380706 -0.20957915 -0.03761806 0.022676015 -0.03259878 0.0032587019 0.114802755 0.050209425 0.011361457 0.04911828 -0.033936817 -0.031907763 -0.024442691 0.038794354 -0.2510922
male 0.031566676 0.002003338 -0.046122227 0.013173807 0.0069345715 -0.021691788 -0.011810586 0.035822853 0.019114887 0.03583504 0.021716611 -0.0047008726 -0.021473385 -0.0069019124 -0.011803791 -0.018538244
blasphemer 0.10382245 -0.09787296 -0.23064531 -0.006139551 0.015171818 -0.052078854 0.017636456 0.15309845 0.066279665 0.034716092 0.02564073 -0.035918877 -0.0701052 0.034664497 0.004267781 -0.22819524
remnants 0.09861909 -0.07449182 -0.18684447 0.010390238 0.033111013 -0.032382213 -0.019724475 0.11363493 0.07429471 0.07723205 0.038153075 -0.03246579 -0.018363615 0.006200683 0.052222803 -0.19699721
clan 0.042292614 -0.023697475 -0.07031369 -0.03367963 -0.0033447032 -0.03206428 -0.025401922 0.00765221 0.014755547 0.02575752 -0.012155335 -0.0011396602 -0.035770446 0.01917998 -0.0065133846 -0.08031348
woman_and_her_mother 0.010043899 -0.018528732 -0.06843477 -0.023008205 0.029634539 0.0064309346 -0.00033800188 0.051282614 -0.021215731 0.020136641 -0.02126575 0.012424966 -0.03714041 -0.019335575 0.027059602 -0.07673176
Moses 0.11158573 -0.06872982 -0.19194639 -0.02408644 0.037326653 -0.006999406 -0.006980569 0.09866641 0.050824065 0.05449684 0.038075563 -0.023097252 -0.07255703 0.030651959 0.057911534 -0.25265285
foreign_nations 0.08937416 -0.095494874 -0.18297212 -0.0018922517 -0.007878558 -0.016377375 0.03672973 0.08995292 0.06431208 0.056587156 0.00096043624 0.002862686 -0.039832458 0.021663023 0.01877586 -0.18890016
relative 0.012800958 0.005161844 -0.09252343 -0.027275631 -0.008502422 0.013111747 -0.0018731811 0.06143908 0.031073887 0.035461705 0.018317522 -0.0015333978 0.010665195 0.0033281508 0.003566715 -0.09273362
group_of_people 0.06564287 -0.0708456 -0.18508771 -0.04601667 -0.022788873 -0.032114804 -0.004278326 0.13790908 0.031005032 0.026629688 0.032836128 -0.008014647 -0.054663282 0.008971797 0.009411915 -0.19403657
handmaid 0.018402928 -0.0270589 -0.050283056 0.005147872 -0.010879575 0.013850636 0.020945959 0.015548202 -0.023646222 -0.0071847336 -0.0015146137 -0.008017176 0.021743136 0.028318863 0.00914834 -0.008097543
2MPl 4.7240013e-05 -0.022585519 -0.04881338 -0.0182911 0.0055075283 0.014460545 0.007664156 0.020266064 0.0013827885 0.028319554 0.02772179 0.024734957 -0.027976384 0.012018437 -0.011250076 -0.053675674
slave -0.019203924 -0.020126117 -0.024834089 -0.012573053 0.018184299 -0.006683909 -0.00912746 0.042335514 0.002923048 0.022025589 -0.006121727 -0.01811585 0.0007401315 0.026176304 -0.015026482 -0.019497951
aunt 0.0047345106 -0.015959147 -0.052875236 -0.028474372 -0.01283109 -0.009508991 0.028653357 0.043194044 0.027531108 0.013829922 0.02460507 0.025629068 -0.039781846 -0.0115533415 -0.015141407 -0.022541221
sons_of_sojourners 0.01487463 0.009954044 -0.051460143 0.020911083 -0.022083744 0.019774828 -0.007791769 0.0071527218 0.018101461 -0.025323594 0.027590321 0.017574752 -0.012118461 0.01456692 0.01450278 -0.021784242
man/woman -0.020424645 0.011809158 0.002814992 -0.029210191 0.015910726 -0.0049604485 0.0177443 0.029291134 -0.025666118 0.015273049 -0.023399321 -0.028539129 0.021173386 0.006933589 0.024966665 -0.027561186
virgin 0.014401827 -0.010695494 -0.044606842 -0.01474345 -0.015723376 0.009119989 -0.02421008 0.03563418 0.013873028 0.021484885 0.0156231215 0.028341219 0.022810208 -0.016544886 -0.013666192 -0.009750979
granddaughter 0.023843274 0.0030265055 -0.034094602 0.0019462588 -0.022436984 0.026030783 -0.020593274 0.036835097 0.015941616 -0.01698044 0.03546255 0.006787524 -0.027353521 0.012994001 -0.000249991 -0.034523915
children 0.020885747 0.006236899 -0.017004533 -0.02236403 0.02630596 0.014928811 0.0017221343 -0.012164656 0.005674028 0.03284817 0.02767168 -0.031965245 -0.0060768295 0.023816297 -0.0150177665 -0.022622535
elderly 0.018492365 -0.009930725 -0.031440705 0.02209621 -0.022750486 -0.011762343 -0.006772776 0.0047566043 -0.015529774 -0.01417028 0.017490124 0.019194162 -0.012798258 0.02589088 0.016895534 0.0018919329
rich 0.014112092 -0.026206264 -0.028735591 0.002172579 -0.024804264 -0.017262701 -0.023140874 0.028721826 -0.026683258 0.0321838 -0.027665889 0.014885021 0.02485257 -0.0064255735 -0.002911725 -0.013941287
granddaughter_of_woman -0.015446632 -0.0008560711 -0.0071056173 0.021888992 -0.020110019 0.005103796 -0.0060136267 -0.0038575493 0.018192424 0.0036798664 -0.01796571 0.011914154 -0.001966366 -0.022361562 0.0037602868 0.00034641335
poor 0.014005697 -0.0048304815 -0.017863108 -0.021429185 -0.020351097 -0.029522976 -0.01577939 0.00898368 0.025923988 -0.005435312 -0.0026241294 -0.015673855 0.02629879 -0.010227316 -0.020463256 0.0062928544
purchaser -0.015576592 -0.033679742 -0.024648042 0.023666263 0.02812112 0.013420191 0.031953376 0.0013512531 -0.010718445 -0.021138504 -0.0005170765 -0.0033138935 -0.014150005 -0.0031158975 -0.008704404 -0.043672588
woman_and_her_daughter 0.017774884 -0.019800691 -0.019174196 -0.01665334 -0.021999558 -0.030881654 -0.016316183 0.000725375 0.003921064 -0.027786633 -0.011184806 0.0043296395 -0.0017300654 0.014271607 0.0025795302 -0.023276791
woman -0.023236584 0.020311499 -0.008246438 -0.012064208 0.020670863 -0.011818866 -0.020706851 0.02507765 0.0039950814 0.01981638 -0.0029726203 -0.020320287 -0.0053037754 0.028190913 -0.0073243943 0.009898483
sister_of_woman 0.030141883 0.005284706 0.0015262148 -8.001789e-05 0.0047619976 0.020578755 0.0050915154 0.022596058 -0.016376853 -0.016474051 -0.0063247345 0.022090899 0.023541184 0.02717535 0.03118308 -0.0014542418
blind -0.013416537 0.021618562 -0.019489957 -0.02732337 -0.0031487937 0.01765253 -0.012535386 0.031443495 -0.0073708887 0.010303011 9.811623e-05 0.012094418 -0.014268092 -0.018454812 3.657439e-05 -0.01388424
deaf 0.0115764495 -0.033294648 0.010035926 0.027759673 -0.0034434076 -0.032249305 -0.023819583 0.02153372 0.0019641935 -0.008688321 -0.0031877225 -0.023230514 0.0028990395 -0.011579964 0.020080145 -0.031898063
daughter 0.06463258 -0.052726395 -0.1974252 -0.0025781412 -0.0028497796 0.0077628326 0.014727949 0.11172462 0.03982772 0.037271257 0.01331585 0.0062662903 -0.024998758 0.020287769 0.0037897867 -0.19577329
son_of_brother -0.009296471 -0.0053500673 0.0008849443 -0.0062578176 0.02535041 0.02122646 -0.0066755624 -0.001089157 0.018491419 0.021424452 0.01955962 0.012892028 0.022654135 0.030818267 0.013476022 0.016313855
man 0.016217032 -0.017491767 0.006219391 0.0034574124 0.0023666446 -0.025600372 0.02067511 -0.028608201 -0.016767042 -0.0119215455 -0.018934261 -0.0019116169 -0.028542377 -0.03083267 -0.02427505 -0.0067350203
no-one -0.013533291 0.014572794 -0.02653078 0.027107477 -0.02533764 0.028240368 -0.0044832965 0.0011885026 0.01559621 0.007192119 -0.026459306 0.028593745 -0.0110132005 0.013219804 -0.02124286 0.024142932
brother's_uncle -0.016800933 -0.010388002 -0.022518013 0.025763625 0.019887712 -0.005829143 0.017792093 0.013883173 0.025340246 -0.01354691 -0.003020256 -0.0107841045 -0.0010386935 -0.01165392 -0.029771788 0.003867596
husband 0.02029547 -0.01668156 -0.019202253 0.019725513 0.030406583 -0.009047531 0.005093808 -0.022424974 -0.0016157698 -0.010717711 -0.003173725 -0.030113772 -0.008240404 0.0028125318 0.009043136 -0.019215016
lay-person 0.029919978 0.012701817 0.015546395 0.0046276706 0.028890893 -0.030021204 -0.028915059 -0.020158166 0.026643725 -0.009709697 0.016650751 0.03106356 -0.015765177 0.0020167562 0.015761374 0.0132178655
brother's_brother -0.010916336 -0.00081068923 0.0020209695 -0.022133462 -0.00610404 0.011038255 -0.019958567 -0.023124147 0.022117443 -0.008617377 0.009978783 -0.00080194144 0.017578918 0.016478345 -0.02628251 0.016356112
witnesses -0.030939773 -0.028613975 -0.029990382 -0.013341137 -0.025572695 -0.024228232 0.012572625 -0.015067415 -0.019835403 -0.0036539454 0.008849539 0.025189769 -0.026608685 -0.021998541 -0.018606206 0.019869724
