59 16
YHWH -0.06908815 -0.14436212 0.54137784 -0.016146988 -0.111054234 -0.20663711 -0.30855072 0.101971395 -0.059591882 -0.08824806 0.13808842 0.06498703 -0.2535376 0.115107775 -0.39698404 0.064847864
Israelites -0.05492678 -0.1677628 0.58792615 -0.0074116504 -0.100013345 -0.19229178 -0.3411633 0.11622861 -0.053611837 -0.10884882 0.15296228 0.116203226 -0.22091435 0.12356633 -0.42478356 0.06535518
sojourner -0.07021002 -0.13778475 0.4013052 0.025001893 -0.07404266 -0.17089917 -0.2477747 0.07093163 -0.04053785 -0.039940637 0.06251742 0.06775641 -0.1828303 0.09490485 -0.33403483 0.042036887
an_Israelite -0.070498876 -0.15615143 0.4462792 -0.016625639 -0.111195765 -0.2017397 -0.29189318 0.065610446 -0.032496773 -0.08677554 0.10777808 0.05838565 -0.20000397 0.083891116 -0.38878858 0.03346839
Aaron -0.06697393 -0.12692331 0.31980652 -0.03771867 -0.057007022 -0.117386565 -0.21054775 0.053075653 -0.028714191 -0.013932845 0.09445679 0.059887666 -0.14585753 0.083302796 -0.27064216 0.000127586
Aaron's_sons -0.025967553 -0.13937062 0.35970235 -0.0042681247 -0.05869208 -0.11960045 -0.22533254 0.06376133 -0.06346581 -0.03775772 0.08400123 0.03946889 -0.13393569 0.105661415 -0.2381765 0.07410335
2MSg -0.05965365 -0.1214032 0.28282157 0.011359255 -0.08151705 -0.14917645 -0.1722203 0.015957104 -0.014954426 -0.06268725 0.054556314 0.06916821 -0.13385285 0.07542531 -0.25378245 0.009106952
corpse -0.008690315 -0.027261412 0.08476942 -0.008637194 -0.043723304 -0.049937524 -0.06832459 0.011512718 0.0067717405 0.00065428443 0.04786168 0.046115883 -0.041321427 0.043560795 -0.102656096 0.020125905
idols 0.008452694 -0.054823123 0.31252468 -0.007790816 -0.022139823 -0.14640218 -0.16206577 0.042145222 0.00021145171 -0.034829397 0.05956683 0.04190071 -0.11954829 0.069217294 -0.23585638 0.051089235
mother -0.032109577 -0.057729013 0.08290939 0.008080602 -0.02010177 -0.04303992 -0.061571874 -0.015621093 -0.028696174 -0.034779046 0.049740948 0.035487927 -0.018254938 0.026918478 -0.06845519 0.032490727
father -0.03295107 -0.039021395 0.12599342 -0.029734397 -0.0050616777 -0.038970966 -0.04653509 0.0036611177 0.0043594246 0.016929094 0.049278237 0.039072476 -0.013825251 0.028316312 -0.096767925 0.02465715
woman_in_menstruation -0.017921519 -0.038008124 0.087967955 0.013602583 -0.0038977528 -0.04980703 -0.041682314 0.034831375 0.000735555 0.0115701035 0.008731464 -0.0024816392 -0.015389032 0.009636832 -0.065342985 0.023486797
offspring -0.016323533 -0.034011517 0.09478077 -0.009326995 -0.016544405 -0.06654889 -0.029397741 0.01692129 -0.0008267318 -0.0077721374 0.030485898 0.010811914 -0.035037793 0.051872984 -0.0996111 0.026051398
human_being -0.056869596 -0.058880195 0.22294626 -0.008067663 -0.07002097 -0.06783497 -0.14731653 0.009086134 -0.015851613 0.003433366 0.042986922 0.029616224 -0.12624754 0.06956662 -0.210989 -0.0034303658
widowed/expelled/defiled_woman 0.0062790276 -0.010460641 0.117039524 0.025240935 -0.04636185 -0.041942853 -0.08334402 0.03700842 -0.020899422 -0.018824086 0.0026039218 0.023621429 -0.04466792 -0.007111296 -0.04676927 -0.0015332801
sister -0.01087178 -0.073599696 0.28530616 -0.017957347 -0.05612985 -0.11825746 -0.17112222 0.013100306 -0.048078377 -0.008964925 0.05238802 0.05755323 -0.09982464 0.07202575 -0.20579715 0.004164294
fellow's_wife -0.028486615 -0.06918768 0.28161842 -0.042566147 -0.09337183 -0.10611617 -0.16383734 0.01803388 -0.030027755 -0.035074864 0.068383396 0.08614006 -0.15549576 0.04552342 -0.25442225 0.05730074
aunt-in-law -0.011518458 0.00011316809 0.07943152 -0.006203084 -0.005611325 -0.049922757 -0.02025853 -0.01666171 0.01562582 0.015441381 -0.0062909303 0.003187411 -0.038582645 0.044040438 -0.043677635 0.0053816307
daughter-in-law 0.008751945 -0.017061898 0.07913842 0.0132186515 -0.041449495 -0.048039325 -0.046950698 -0.014007576 0.022952143 -0.027136438 0.02951244 0.029381031 -0.017532464 0.027628342 -0.04845725 -0.022858359
kinsmen -0.012125642 -0.056579813 0.23036766 -0.020286819 -0.058681168 -0.09560144 -0.14516246 0.03395355 -0.010695625 -0.004640941 0.0639842 0.05924528 -0.10485698 0.07820629 -0.19103187 0.03175533
father's_wife -0.028435213 -0.025276221 0.0684122 0.016046535 -0.00875417 -0.016889831 -0.03496178 0.0051771016 0.011372425 -0.023969524 -0.00034312258 -0.016996346 -0.046802793 0.03079803 -0.04827804 -0.0046857474
Moses -0.01919314 -0.083472684 0.26619628 0.0059293993 -0.04158438 -0.09454085 -0.13818793 0.06275072 -0.006647446 -0.03924501 0.086645834 0.010935614 -0.1264549 0.030438181 -0.18246967 0.033021167
brother 0.0008895486 -0.064237736 0.27564618 0.011547101 -0.08046 -0.079868056 -0.13443772 0.042971425 -0.030503498 -0.01443934 0.026683073 0.06904714 -0.08849507 0.07709247 -0.21971452 0.044098087
blasphemer 0.0041876826 -0.066072576 0.28722066 0.026887026 -0.04601851 -0.12857041 -0.17388202 0.03659923 -0.005007129 -0.06808898 0.08713741 0.022878885 -0.07673643 0.026896404 -0.23096329 0.018548977
woman_and_her_mother -0.033729278 -0.03392354 0.08295683 -0.026567865 -0.044257104 -0.035888035 -0.021166753 -0.008395723 -0.023773111 -0.033142112 0.036336042 0.028143777 -0.038521577 0.03270948 -0.080318 -0.0012425239
foreign_nations -0.0037779908 -0.0777177 0.25271773 0.019305998 -0.021611879 -0.12554651 -0.13442008 0.06963613 0.00010858572 -0.0052819345 0.08438082 0.04712865 -0.11115256 0.034899272 -0.19816162 0.007886734
relative 0.017840823 -0.046234354 0.085315935 0.0029657062 0.019355562 -0.03783243 -0.025713949 -0.019330489 -0.009132789 -0.037089277 0.0014805119 -0.0010920794 0.0044154287 0.020318158 -0.040573496 0.0041542985
clan -0.02477322 -0.0024800634 0.07238646 -0.0076304716 -0.013117867 -0.062229995 -0.04469658 0.022216203 -0.01913577 -0.0017367834 0.03647368 0.007871136 -0.006111761 0.012952265 -0.08520289 0.03737516
remnants -0.006170652 -0.072062366 0.22963062 0.002438722 -0.015557132 -0.1285808 -0.11617114 0.026720058 -0.0442484 -0.06393939 0.032324288 0.030799704 -0.08514507 0.031725444 -0.17776579 0.036092542
male 0.0021515337 -0.011483165 0.040197443 0.02914599 -0.03355509 -0.029012496 -0.043634277 0.018759288 0.021032931 -0.012429438 0.03381362 0.029439963 -0.024595087 0.027269188 -0.023943255 -0.0051188674
group_of_people -0.054488458 -0.0905833 0.24465075 -0.0052274805 -0.07740012 -0.07713411 -0.14285237 0.061619584 -0.041812867 -0.035290577 0.036973402 0.04354726 -0.10447217 0.035008725 -0.16424182 -0.004041836
2MPl -0.0028974502 -0.011832049 0.03609478 -0.027017549 -0.026156433 -0.024965953 -0.037770186 -0.0025183926 -0.00939676 0.00995588 -0.0136212455 0.027640946 -0.004708246 0.010750465 -0.041105136 0.004448443
handmaid 0.013521373 -0.034996837 0.0140465405 0.007943728 -0.0038388837 -0.022093784 -0.0005319456 0.035255425 0.026995877 0.0019766206 0.0011020806 -0.02232046 -0.0060348944 -0.0070404303 -0.047173787 0.02120819
granddaughter -0.01521273 -0.010430761 0.06013989 -0.024305023 -0.018984314 -0.044988297 0.00055162574 0.009180471 -0.021951737 -0.013219931 0.0010470499 0.021291645 0.010928733 -0.0054442696 -0.051490106 -0.01791755
slave -0.027786275 -0.038887717 0.0056687403 0.019708017 -0.012531605 -0.034295514 -0.0145707615 0.007013803 0.004181663 -0.015974557 0.021304622 0.015362361 -0.030378077 -0.013800912 -0.026512554 0.000762895
sons_of_sojourners 0.027490305 -0.0133561045 0.0017322327 0.023895094 0.023477573 -0.028447839 -0.037050437 -0.003161124 -0.0016145419 0.023967098 0.021177702 -0.013956898 0.009646115 -0.0013878752 0.0067377198 0.010818951
children 0.026744034 -0.026591094 0.037140284 -0.008690286 0.0036383732 -0.031381458 -0.017052377 0.014376178 0.009526039 0.014651878 0.00096332585 -0.01131558 0.0126850195 0.00028151547 -0.030700244 -0.009850215
virgin -0.031011866 -0.018358588 0.015249727 0.010036802 -0.00033927592 0.01745178 -0.009662019 0.01923129 0.01766517 -0.022921864 0.009099676 0.0013380315 0.013121498 -0.0019444206 -0.018991685 0.014406214
aunt 0.023046384 -0.04025261 0.06496699 -0.019294051 0.012191851 -0.04727247 -0.027389314 0.031844065 -0.022037644 0.021883683 0.016793255 0.038014695 0.0107514765 0.015158192 -0.048106678 0.014501284
man/woman 0.029702049 0.0012598025 -0.007324923 -0.024887037 -0.016224403 -0.008440865 -0.016396277 -0.0040700855 0.017354844 -0.025215367 0.022366758 0.005807083 0.020174658 -0.023403289 0.013227287 -0.017665992
purchaser -0.012751754 -0.0005251835 0.006648199 0.01212944 0.010219438 -0.01104716 -0.033803474 -0.023237664 0.022785807 -0.032132912 0.03684979 0.013799508 0.0073577864 0.023374585 -0.042800315 -0.0022977155
rich -0.008264892 -0.030882748 0.008249394 -0.01158979 0.0012425171 -0.0005742251 -0.02026654 -0.02200541 0.014327037 0.010480314 0.004057363 -0.00536172 -0.008979943 -0.007276981 -0.009263122 0.008394871
sister_of_woman 0.024222039 0.020462807 -0.013835433 0.00425457 -0.030594854 -0.03357273 -0.006536856 0.020608297 0.013918285 -0.019410783 -0.0016526054 0.012221603 0.0014950032 0.013832871 -0.0056071067 0.007871567
elderly 0.0052047786 0.0070204213 -0.00670316 -0.007349342 -0.0056861695 -0.007975353 -0.02302649 0.00044496974 0.017704051 -0.0031729117 -0.022050925 -0.005270876 -0.013342903 0.00010664447 -0.008505187 0.031846475
woman_and_her_daughter -0.01784511 -0.029373044 0.041627936 0.00059502944 -0.015071222 0.017995875 0.0034095796 0.0047316705 0.0001867583 0.015091513 0.015078628 -0.0015064477 -0.0069826115 0.02982978 -0.0056714956 0.019558702
woman 0.014569147 -0.031947847 0.0033728052 -0.025476042 -0.007953543 -0.033224102 -0.011873515 -0.004628332 0.022344762 -0.019603668 0.01880662 0.029861711 0.01398023 0.025889385 -0.029717531 -0.011923127
daughter -0.018086378 -0.048982915 0.21559642 0.007966489 -0.059757788 -0.07440098 -0.075469844 0.019592537 -0.037362393 -0.012121909 0.06177657 0.02806204 -0.099163756 0.008922337 -0.1449112 0.04149525
deaf -0.027880613 0.018252313 -0.011284806 0.009871725 -0.0093897525 8.027133e-05 -0.014998738 -0.019270109 -0.004966329 0.0020697357 -0.00890138 0.007897501 -0.02419344 0.032511313 -0.012207745 -0.021381253
poor 0.009961439 -0.009051263 0.026737953 -0.022701852 -0.019328814 0.024074428 -0.0033359975 0.012228271 -0.014207139 -0.0021739046 -0.006129688 -0.021861456 0.022178557 0.029767366 0.02118829 -0.01166057
granddaughter_of_woman 0.028763028 0.027936075 0.009345429 0.028868955 0.016053038 -0.0072842217 5.5793906e-05 -0.028220177 0.007993684 0.0117793875 0.0138851255 0.0056877807 0.009696419 0.020528574 0.012437033 -0.024024282
blind 0.0022014028 -0.022218764 -0.014772908 -0.020776602 -0.01212354 -0.02271395 -0.034032784 0.013417091 -0.0075223953 0.026621232 -0.024773961 0.018555835 -0.0099416515 -0.015413505 0.015755923 0.006874624
brother's_brother -0.0089876745 -0.011529919 -0.012627009 -0.007815052 0.008458619 0.0010595816 0.010651544 0.005334177 0.023422701 0.025316697 0.0045883562 -0.006388134 -0.020982353 0.011741473 0.016234798 -0.02753921
son_of_brother -0.004836127 0.005962721 -0.023744846 0.010095093 0.02045816 -0.0075039594 -0.009574929 0.018147683 0.015067871 0.02588912 -0.024060857 0.01384965 0.028079225 -0.015848855 0.012959375 -0.007858517
witnesses -0.027511114 0.024263771 -0.005662056 -0.028843226 -0.027829655 0.0069834623 -0.008615785 -0.014129514 -0.02213665 0.013217165 -0.022373706 -0.0038776537 0.0107030235 -0.027263898 -0.024216866 -0.029289972
no-one -0.0013333221 -0.012619154 -0.0027935135 0.00586057 0.030113291 -0.019882714 -0.012407899 0.027910935 -0.008133976 0.01379522 0.025583303 0.014224777 -0.012730136 -0.025307454 -0.021988112 -0.0019593292
brother's_uncle -0.029027844 0.014026136 0.01442722 0.009730733 0.01906902 -0.023880389 0.015019659 -0.027264094 0.0002430189 0.025783433 -0.0060832473 0.012873968 0.027989676 0.02525406 -0.027907165 0.014130443
husband -0.0022920312 -0.026099067 0.013772991 -0.01614257 -0.018807665 0.028355623 -0.02719612 -0.016415264 0.0043102033 -0.010348618 -0.016919455 -0.022296097 -0.01389007 0.004261817 -0.0060824077 0.022408549
lay-person 0.010718078 -0.012615373 0.011509005 -0.011830017 0.021550499 -0.02869397 -0.009878853 0.028114688 -0.021358179 -0.0020508412 -0.0031081655 0.021333266 -0.011892744 -0.012814663 -0.020130202 -0.0037875152
man -0.030244999 0.01455113 0.0012452605 0.015184938 0.017713003 0.01047678 -0.028793212 0.021750392 -0.028592285 -0.015143517 0.013161136 -0.017216753 0.027569806 0.019556364 -0.026850691 -0.006380198
