59 16
YHWH 0.19797912 -0.2544674 -0.35287508 -0.07411469 0.024336861 -0.10847505 -0.014407592 0.21490075 0.20264463 0.21245618 0.0064975857 -0.031668097 -0.09865572 0.022358594 0.07761225 -0.5443065
Israelites 0.12715042 -0.20967671 -0.30091205 -0.12525764 0.057361845 -0.1234714 -0.0077425363 0.17110917 0.14726405 0.1607443 0.02094815 -0.002185514 -0.11373298 0.037738245 0.062442977 -0.4982066
sojourner 0.14400455 -0.16578804 -0.25903678 -0.08113885 0.012657141 -0.11340075 -0.022822164 0.17254879 0.12806752 0.13169083 -0.020750437 -0.047920734 -0.07350059 0.00497908 0.05488945 -0.43221402
an_Israelite 0.10045395 -0.19630988 -0.27570236 -0.09684818 0.01890306 -0.11063677 -0.043275435 0.14138475 0.16112278 0.16426489 -0.019576253 -0.0013831726 -0.124852926 0.012375522 0.08823127 -0.42961636
Aaron 0.13850655 -0.14865726 -0.2685215 -0.059930563 0.021170333 -0.1042869 -0.005531357 0.12089969 0.08314505 0.11686011 -0.023726586 -0.026389122 -0.057696037 0.012775715 0.054226037 -0.37285045
Aaron's_sons 0.07113889 -0.19419198 -0.25044325 -0.07675737 0.059300456 -0.047012538 -0.01808404 0.11785294 0.14828818 0.10096473 0.039262414 -0.039916683 -0.11622266 -0.013247128 0.07987253 -0.36676967
2msg 0.08809563 -0.15741497 -0.28576967 -0.114900604 0.036156278 -0.054117605 -0.010059507 0.17148788 0.092826 0.09168571 0.042032722 0.0057814494 -0.12823135 0.009055141 0.084970675 -0.39553297
idols 0.101817 -0.11801707 -0.22908881 -0.05463176 0.046355326 -0.043541074 0.021807004 0.09507685 0.059586164 0.08646248 -0.011475362 -0.030379282 -0.10726031 0.0003939041 0.047981944 -0.2799222
corpse 0.05043207 -0.02891098 -0.10485791 -0.025168821 0.009453694 -0.014568723 -0.035481043 0.043399464 0.0440628 0.06697964 0.012802491 0.015452107 -0.0025283906 -0.0124167185 0.017676909 -0.11642086
mother 0.019683937 -0.06524588 -0.043816127 -0.03311105 0.019969607 -0.046559654 -0.023168122 0.054219227 0.033440188 0.058331206 0.006671045 0.012006345 -0.010543851 -0.018477919 0.04223041 -0.11198906
father 0.030938713 -0.026616612 -0.045652293 -0.029289758 -0.019684229 -0.03541454 0.01946457 0.007880071 0.05678165 0.047204543 0.030929968 0.0032354512 -0.056280088 0.019304935 0.03597678 -0.12839745
woman_in_menstruation 0.049339704 -0.054607235 -0.08154737 -0.03166422 0.023812551 -0.037542112 0.0108866105 0.061005026 0.0334662 0.056943838 0.033191625 0.018890817 -0.0422296 0.010155542 -0.012889154 -0.09701655
daughter-in-law -0.0028923415 -0.015613295 -0.07461357 -0.04237265 -0.008820478 -0.021417096 0.029052284 0.046721287 0.018936949 0.0014245303 0.024476383 0.0031926031 -0.04371249 0.007823938 0.008148338 -0.06713444
offspring 0.0030485417 -0.058933493 -0.06342672 -0.031963576 -0.015502008 -0.043585822 -0.0014591627 0.04585598 0.021735717 0.023267237 0.011313034 0.0037548998 -0.02308736 -0.00061834976 -0.015994266 -0.069378935
sister 0.06785857 -0.11860853 -0.14904997 -0.027069973 0.04502402 -0.023287697 -0.0016700209 0.115273476 0.07198337 0.09918183 -0.021425053 -0.0441742 -0.08763373 -0.004781407 0.035814747 -0.25486857
aunt-in-law 0.022937786 -0.0003730905 -0.052760318 0.012386369 -0.0017914914 -0.025054589 0.011332084 -0.0010723851 0.023419052 0.010967089 0.03221969 -0.014018255 -0.0050493637 -0.0023727522 0.014667734 -0.053897217
widowed/expelled/defiled_woman 0.00988782 -0.042305302 -0.08314399 0.009270044 0.021767363 -0.013926843 0.017840046 0.004359496 0.008430212 0.028479742 0.019449092 -0.029973982 0.0047693495 0.018166084 -0.007492507 -0.07731894
fellow's_wife 0.051354147 -0.11522114 -0.18476675 -0.07960719 0.0035246725 -0.076832995 -0.0067992574 0.104517676 0.08379099 0.06901711 0.038930457 -0.011856075 -0.07522475 0.029572802 0.04841017 -0.27970734
father's_wife -0.008353404 -0.016807135 -0.054988824 0.00880361 -0.012063398 -0.039010663 -0.0059045255 0.0066491133 0.0043960228 0.021792306 -0.016206214 0.020434532 -0.025952514 0.013979351 0.026728272 -0.038950983
brother 0.03480254 -0.082296625 -0.17043756 -0.06885646 0.038510166 -0.029272553 -0.0139493 0.043330967 0.06568283 0.06300283 0.013446536 -0.0067959046 -0.0621692 0.01326545 0.032919407 -0.19876282
foreign_nations 0.07930717 -0.12948325 -0.1753274 -0.025112592 0.0090602925 -0.037311472 0.014689724 0.06417755 0.09211705 0.09420167 -0.0209109 -0.0007194268 -0.05315433 0.025788533 0.022844091 -0.20780106
human_being 0.07033135 -0.11112772 -0.14869781 -0.020357803 0.037541788 -0.08097941 -0.014444897 0.12298692 0.09724841 0.06953095 0.022966376 -0.047886908 -0.04530555 0.038450547 0.033769295 -0.28457394
kinsmen 0.09052561 -0.10000628 -0.16731422 -0.055832967 0.03475942 -0.041903984 -0.0170124 0.072396174 0.0696127 0.041959457 0.022148708 -0.03537062 -0.038675416 -0.02450107 0.03891209 -0.23139526
Moses 0.08301906 -0.07928245 -0.13215508 -0.03640396 0.04852402 -0.01536267 -0.027416866 0.04452231 0.061204128 0.07694112 0.008754093 -0.024627492 -0.0732609 0.030266667 0.05295259 -0.20819587
clan 0.041912433 -0.035765912 -0.07232503 -0.041853193 -3.9887636e-05 -0.035860367 -0.033074245 0.0029036335 0.0235374 0.038068246 -0.01858298 -0.0010756246 -0.042503495 0.01957425 -0.0054931147 -0.088674694
woman_and_her_mother 0.009489228 -0.031534392 -0.0670058 -0.028574983 0.034382414 0.0020074106 -0.0059312433 0.04578367 -0.009916748 0.03276723 -0.027868597 0.00973826 -0.042709403 -0.018941613 0.028681748 -0.08449172
remnants 0.086303756 -0.10627069 -0.16039616 -0.0055004996 0.05297341 -0.051215418 -0.044258576 0.07613598 0.103451334 0.11551572 0.012691783 -0.04039447 -0.02679836 0.007923731 0.054322902 -0.19521016
blasphemer 0.08230308 -0.118209906 -0.18292385 -0.0230317 0.028856616 -0.06505503 -0.005648111 0.10389143 0.085898474 0.06696036 -0.0056485552 -0.039118383 -0.077033274 0.036598038 0.0026784714 -0.20320126
male 0.03014436 -0.005829292 -0.045322288 0.006856083 0.009723532 -0.024942465 -0.016080365 0.03192432 0.024380859 0.044166073 0.015741993 -0.005943406 -0.026082348 -0.0067134816 -0.010376272 -0.02526911
handmaid 0.027012927 -0.047508415 -0.07418119 -0.0058890753 -0.005548093 0.004473608 0.018290674 0.025351373 -0.009630429 0.009803002 -0.005232287 -0.01067882 0.008074312 0.031219915 0.015247774 -0.04652708
relative 0.006043462 -0.00035528105 -0.07349127 -0.031577718 -0.0052866284 0.006624899 -0.008631201 0.04580427 0.035526313 0.043184735 0.007291333 -0.0028006404 0.008733032 0.0024275102 0.003501957 -0.08288829
aunt 0.00766389 -0.029140972 -0.058812834 -0.034235105 -0.00905295 -0.015490526 0.023072278 0.041352678 0.038497914 0.027275046 0.018806288 0.023457546 -0.045358874 -0.009858683 -0.01286988 -0.036967054
2mpl -0.0031012362 -0.026150947 -0.04173884 -0.02050151 0.0081831915 0.012821082 0.0049348483 0.013162529 0.0049174526 0.032681458 0.024118401 0.024321174 -0.029017702 0.011773572 -0.011046758 -0.050668515
group_of_people 0.057740707 -0.10660433 -0.17550793 -0.0730575 -0.0048480732 -0.050473582 -0.026868612 0.11284144 0.05936962 0.0666967 0.01013273 -0.014333668 -0.0717396 0.011299931 0.013935604 -0.21591577
granddaughter 0.0241771 -0.0044775475 -0.03574537 -0.0019493164 -0.019537697 0.021765318 -0.023013683 0.035957843 0.021781774 -0.009874517 0.032003805 0.0051833023 -0.031374447 0.013772794 0.0012980186 -0.04256284
slave -0.019673515 -0.026358949 -0.02473593 -0.015546283 0.020934323 -0.009611178 -0.0126270875 0.038567033 0.0076844753 0.02916636 -0.00991606 -0.020018859 -0.0022999358 0.026171759 -0.012593965 -0.025227813
man/woman -0.017955976 0.0012353432 -0.0061905263 -0.034802206 0.017930001 -0.010662073 0.015097374 0.03163423 -0.017783646 0.023870375 -0.025484249 -0.02934369 0.014945241 0.008320699 0.028546559 -0.04315261
virgin 0.016740581 -0.019004343 -0.05024847 -0.019533155 -0.012896514 0.0049864645 -0.027062055 0.036687043 0.020340553 0.030148033 0.013700083 0.02734484 0.019202424 -0.015695965 -0.011098848 -0.023415351
purchaser -0.012932991 -0.041546352 -0.031424984 0.019679904 0.029439535 0.009329768 0.030652056 0.004331839 -0.0055453586 -0.015198905 -0.0022860547 -0.004489162 -0.018670594 -0.0031173741 -0.006675539 -0.055890407
sons_of_sojourners 0.008261161 0.012900305 -0.039264087 0.021161243 -0.02117883 0.021119878 -0.009514808 -0.0025949948 0.016290374 -0.026152208 0.024130924 0.017519295 -0.011176397 0.014926937 0.0127078425 -0.0076172794
children 0.014982084 0.009496856 -0.00577192 -0.023207124 0.026333235 0.015255633 0.00023868374 -0.01903909 0.003105719 0.031179234 0.026110034 -0.031110605 -0.004680798 0.023641583 -0.016362065 -0.0119524365
deaf 0.012108532 -0.03607896 0.0082276445 0.026262512 -0.002083078 -0.033115607 -0.024445266 0.021723248 0.004277464 -0.0060270936 -0.0039993515 -0.023948802 0.0010002444 -0.011455883 0.020992981 -0.036583554
elderly 0.014702343 -0.008710509 -0.022575406 0.022379568 -0.021344172 -0.009992532 -0.008223034 -0.0023463033 -0.015795503 -0.013556497 0.014335683 0.018519316 -0.01235582 0.025185397 0.015478503 0.011587984
woman_and_her_daughter 0.019651005 -0.025090924 -0.025644159 -0.020827133 -0.020753015 -0.034062333 -0.017366493 0.0041825906 0.007732519 -0.02367381 -0.011374917 0.003904358 -0.0055267205 0.014943161 0.00437362 -0.0349051
woman -0.022588326 0.017541055 -0.0106168315 -0.013643187 0.02144918 -0.0131149 -0.021458097 0.025629483 0.0063228854 0.022330128 -0.0039854697 -0.021008104 -0.0071978373 0.028518448 -0.0066081453 0.0055894405
daughter 0.052907925 -0.08226952 -0.17511496 -0.022313304 0.011160793 -0.011612662 -0.005607478 0.079502985 0.062074143 0.07404184 -0.015460801 0.0017675391 -0.04119082 0.021277413 0.0067236857 -0.20084755
sister_of_woman 0.031487446 0.0031516564 -0.0014691307 -0.0010420692 0.005398722 0.019603645 0.0047070226 0.024320744 -0.014615306 -0.0148081295 -0.00635158 0.02166897 0.022468254 0.027276045 0.03187718 -0.006250661
poor 0.01475299 -0.008417587 -0.018377721 -0.022750678 -0.019385982 -0.031172082 -0.016323777 0.008545032 0.028837351 -0.0023167285 -0.004108403 -0.016480803 0.02486644 -0.009720818 -0.020196116 0.002411275
rich 0.013911787 -0.027175277 -0.026654508 0.0017306472 -0.02417411 -0.01786622 -0.023929574 0.027649077 -0.025339643 0.0335567 -0.028874308 0.014060626 0.024689889 -0.006696658 -0.0032531624 -0.0135579975
blind -0.016125564 0.022708276 -0.012934378 -0.027105868 -0.0024220787 0.018702038 -0.013083279 0.026398242 -0.0076537523 0.011049971 -0.0025969853 0.0114065735 -0.014171834 -0.018738931 -0.0016392373 -0.0062532853
granddaughter_of_woman -0.012682118 -0.007441284 -0.013137804 0.018024707 -0.01830257 0.00091444596 -0.007450732 -0.0013140698 0.023052325 0.00905606 -0.01927217 0.010204089 -0.0060942136 -0.021477954 0.005197057 -0.01170462
witnesses -0.030939773 -0.028613975 -0.029990382 -0.013341137 -0.025572695 -0.024228232 0.012572625 -0.015067415 -0.019835403 -0.0036539454 0.008849539 0.025189769 -0.026608685 -0.021998541 -0.018606206 0.019869724
son_of_brother -0.009296471 -0.0053500673 0.0008849443 -0.0062578176 0.02535041 0.02122646 -0.0066755624 -0.001089157 0.018491419 0.021424452 0.01955962 0.012892028 0.022654135 0.030818267 0.013476022 0.016313855
lay-person 0.029919978 0.012701817 0.015546395 0.0046276706 0.028890893 -0.030021204 -0.028915059 -0.020158166 0.026643725 -0.009709697 0.016650751 0.03106356 -0.015765177 0.0020167562 0.015761374 0.0132178655
no-one -0.013533291 0.014572794 -0.02653078 0.027107477 -0.02533764 0.028240368 -0.0044832965 0.0011885026 0.01559621 0.007192119 -0.026459306 0.028593745 -0.0110132005 0.013219804 -0.02124286 0.024142932
husband 0.02029547 -0.01668156 -0.019202253 0.019725513 0.030406583 -0.009047531 0.005093808 -0.022424974 -0.0016157698 -0.010717711 -0.003173725 -0.030113772 -0.008240404 0.0028125318 0.009043136 -0.019215016
brother's_uncle -0.016800933 -0.010388002 -0.022518013 0.025763625 0.019887712 -0.005829143 0.017792093 0.013883173 0.025340246 -0.01354691 -0.003020256 -0.0107841045 -0.0010386935 -0.01165392 -0.029771788 0.003867596
man 0.016217032 -0.017491767 0.006219391 0.0034574124 0.0023666446 -0.025600372 0.02067511 -0.028608201 -0.016767042 -0.0119215455 -0.018934261 -0.0019116169 -0.028542377 -0.03083267 -0.02427505 -0.0067350203
brother's_brother -0.010916336 -0.00081068923 0.0020209695 -0.022133462 -0.00610404 0.011038255 -0.019958567 -0.023124147 0.022117443 -0.008617377 0.009978783 -0.00080194144 0.017578918 0.016478345 -0.02628251 0.016356112
