59 16
YHWH 0.08733017 0.18476993 -0.21039626 0.099314176 0.14506522 -0.03841145 -0.39899898 0.036433887 -0.22865005 -0.3744276 0.0054277517 0.087391526 -0.058134176 0.42397317 0.07249699 0.16753362
Israelites 0.12790345 0.18866713 -0.20536739 0.13566081 0.18666826 0.017054731 -0.3763553 0.021721011 -0.21672186 -0.39549118 -0.012919166 0.028929412 -0.02202328 0.4172502 0.011551254 0.19096793
an_Israelite 0.08282774 0.13215409 -0.13611574 0.071717896 0.08364873 -0.038269985 -0.29745075 0.010859609 -0.14864235 -0.26518527 0.014303868 0.036021486 -0.057026926 0.3123249 0.027254006 0.12267629
sojourner 0.09917713 0.14816001 -0.1471627 0.05357191 0.104209974 0.009118565 -0.25640962 0.04213937 -0.14460397 -0.2722489 -0.019856004 0.023745928 -0.047188576 0.31906694 0.051501032 0.109865814
Aaron 0.06607522 0.14903216 -0.13176942 0.07472225 0.11110054 -0.049143065 -0.21031354 0.05428835 -0.092062585 -0.23288944 -0.008478126 0.034443107 -0.009264918 0.26687795 0.035927866 0.08118345
Aaron's_sons 0.04686597 0.09742475 -0.09560839 0.081531286 0.104776315 -0.0235024 -0.19013703 0.024810554 -0.11733092 -0.21290071 0.016072052 0.025626408 -0.006256378 0.19676739 0.034003515 0.09182083
2MSg 0.095588915 0.1388368 -0.096411005 0.06634307 0.1070794 -0.045199312 -0.27032173 0.042774253 -0.14451331 -0.2322305 -0.041856553 0.05705219 -0.028062368 0.2919081 0.00521199 0.10535639
mother 0.009521522 0.0027131736 -0.058161713 -0.0031072588 0.020758694 -0.03494949 -0.07939873 0.011294187 -0.016982893 -0.061069656 0.017899785 0.008717006 0.015053357 0.08328114 0.017027738 0.046134576
idols 0.022775013 0.0779331 -0.09794461 0.07193228 0.071720235 0.0039676926 -0.18633312 -0.0074972687 -0.058057193 -0.18587051 -0.03402398 0.042708017 -0.03529788 0.21676736 0.043920506 0.07889798
father 0.021099204 0.0037111554 -0.023380833 0.011591612 0.045207996 0.0074836453 -0.09145311 -0.0073916526 -0.043243475 -0.04073687 -0.020654486 -0.0010305526 0.006776159 0.04901554 0.019609552 0.04226735
corpse 0.03144865 0.00077019364 -0.0029118934 0.031797625 0.007772175 0.006701877 -0.032597784 0.039580874 -0.020468583 -0.08804027 -0.0086561935 0.021444043 0.023440255 0.04398737 0.02616237 0.051954705
woman_in_menstruation -0.0037411754 0.061934795 -0.015267428 -0.0145571735 0.00732647 -0.011124378 -0.03553778 0.01881062 -0.0069215493 -0.08993853 -0.032992385 0.027539374 -0.018923357 0.076590195 -0.0064023305 0.053384732
widowed/expelled/defiled_woman 0.026174216 0.0109203085 -0.00709011 0.026570829 0.040580727 0.027538532 -0.07912957 0.0042041377 -0.0014611149 -0.03254716 -0.03599438 0.011110104 0.018016223 0.09477659 0.025072938 0.008911339
father's_wife 0.047044113 0.026340703 -0.008409968 0.030635606 0.025183154 -0.02719485 -0.03654844 0.022387223 -0.004107241 -0.041732665 -0.02602777 -0.010560972 -0.03543211 0.067683995 -0.014900618 0.04957371
aunt-in-law 0.00018775469 0.048673924 -0.029201558 0.026240023 0.016352566 -0.020654943 -0.068415284 0.008079652 -0.013228442 -0.04496722 -0.0037849091 -0.021819156 -0.026593126 0.06525764 0.026596174 0.012615531
fellow's_wife 0.0632395 0.13125063 -0.052102737 0.0536194 0.107106596 -0.045124378 -0.15178457 0.05742602 -0.099287584 -0.18049385 0.009224573 -0.005912889 -0.015155123 0.222457 0.03908033 0.110272564
offspring 0.040370453 0.020811982 -0.04635926 0.025665605 0.03114271 0.020130087 -0.05011865 -0.0035033454 -0.00041992476 -0.037007827 -0.024694433 -0.017652677 0.007130446 0.070642166 0.034498256 -0.0008079578
kinsmen 0.038475398 0.0709932 -0.086145796 0.054020405 0.08043212 -0.01756867 -0.16769421 0.0037569862 -0.09604778 -0.16211839 0.0030626447 0.051083323 -0.002744891 0.19063064 0.02241239 0.05417786
daughter-in-law 0.047377974 0.023356516 -0.017582128 0.022237988 0.03293367 0.011018437 -0.047704384 0.028591124 -0.04139235 -0.079576306 0.025254222 0.011578146 -0.02211035 0.05654353 -0.023130178 0.04358729
sister 0.058658533 0.094564736 -0.055841267 0.06436025 0.056765486 -0.0056220423 -0.21420518 -0.009126175 -0.080423586 -0.20280877 -0.042521548 0.04314731 0.012443834 0.23470639 -0.012733777 0.10752628
human_being 0.04114412 0.106435575 -0.10760521 0.026699506 0.04164335 0.01893673 -0.16845705 0.001736287 -0.08192747 -0.1933979 0.011991712 0.046332646 -0.035334848 0.15329751 -0.006406849 0.10684582
brother 0.034056444 0.08782074 -0.048935533 0.033501305 0.09665783 -0.022797018 -0.16640954 0.016689546 -0.07414789 -0.13323013 -0.03445971 0.007908841 -0.04405872 0.20337856 0.017199084 0.06885722
Moses 0.051472135 0.07828099 -0.10432507 0.031508192 0.06407321 -0.008487396 -0.2001754 0.016527584 -0.06389769 -0.1535385 -0.031514887 0.016505074 -0.030887514 0.158289 -0.0031931286 0.06506729
woman_and_her_mother 0.03117365 0.018609848 -0.055422142 0.03441642 0.014435259 0.012409844 -0.07512777 -0.0021923021 -0.03503576 -0.05794785 0.022451151 0.022534348 -0.010321587 0.07349634 0.015442373 0.027298912
remnants 0.053050064 0.0829433 -0.08256477 0.024389049 0.026679037 -0.03492265 -0.186382 0.023418264 -0.12071269 -0.11887237 -0.027064672 -0.006360412 0.012079271 0.1651918 0.030213367 0.03587578
blasphemer 0.055795934 0.08438768 -0.10090796 0.034744874 0.07765245 0.01472662 -0.16109301 0.032932855 -0.11466579 -0.12026928 -0.03381925 0.043157186 -0.008471196 0.17512211 -0.009666497 0.051225882
male 0.021468814 -0.009583278 -0.01844784 0.016476745 0.03415586 -0.011884102 -0.044070143 0.028070144 -0.02039596 -0.036211375 -0.012391531 -0.02473151 0.010163677 0.061775453 0.027379781 0.022801496
foreign_nations 0.04980701 0.044868562 -0.08881879 0.01644051 0.041243874 0.018779768 -0.17994839 0.035909962 -0.09498158 -0.17839819 0.0104819415 0.037775896 -0.029733816 0.16670842 0.0022906822 0.048250128
clan 0.038015734 0.04372788 -0.0142574245 -0.011162901 0.0374472 0.011602678 -0.060163513 -0.016560426 -0.025968343 -0.057815928 -0.028540615 0.01133016 0.023502365 0.032478463 -0.011482737 0.0071227234
relative -0.017222052 0.00027314312 -0.022644635 0.009997111 -0.011138966 0.012385392 -0.03958854 0.030273946 -0.025509018 -0.035252333 -0.020393835 -0.0020724707 -0.009061238 0.038381323 0.019367289 0.015076468
group_of_people 0.0380642 0.062558666 -0.05031134 0.009360418 0.040115595 -0.01625629 -0.16795732 0.0016705539 -0.092235245 -0.107392795 -0.02397315 0.03950509 -0.019904379 0.1736759 -0.012279437 0.06882755
2MPl -0.0059006563 0.030263403 0.011491015 -0.005598241 0.031099143 -0.031355765 -0.040319543 0.026483722 -0.046985485 -0.013605796 0.0043220483 -0.012485388 0.014799134 0.009881332 -0.017396383 0.035197645
handmaid 0.008387412 -0.010653483 -0.04798454 -0.0014182972 -0.0074923043 0.020613002 -0.02418971 0.030066693 -0.0056030615 -0.056248367 0.024970006 0.013969268 -0.02056951 0.0642809 -0.017818896 -0.0111385565
aunt -0.0042321784 0.00507167 -0.025170578 -0.00020733416 0.008001375 0.02518689 -0.054833334 -0.0015942702 0.0027816235 -0.036149003 0.006132944 0.025703438 0.017252473 0.032074515 -0.010529141 0.030841086
slave 0.02667706 0.00552759 -0.01976892 0.011610282 0.016662065 0.015466509 0.00876787 0.025938189 -0.00023905202 -0.022750847 -0.019742947 0.0049669775 -0.03295051 0.051581126 -0.009221731 -0.016105445
virgin 0.032444045 0.029801223 0.010365208 0.014255751 0.0034601274 0.021726457 -0.009734746 -0.016108807 -0.005935992 0.008824911 -0.03126161 -0.027752798 -0.012825809 0.032184593 -0.0015211878 0.03763816
granddaughter -0.01644923 0.038555663 0.015566941 -0.013064271 0.023765253 -0.015815832 -0.03844206 0.033456527 0.006734161 -0.03520084 -0.011466582 0.027602317 0.023153936 0.014221275 -0.02689746 -0.01761708
children -0.015637362 0.00326425 0.009349168 0.0320977 0.019887742 0.028576612 -0.01702545 0.00415149 -0.0041581346 -0.048710845 -0.02581741 -0.0051216977 -0.017020896 0.044596877 0.015882222 0.016710699
purchaser 0.030837897 -0.009444884 -0.009865491 0.0036535142 -0.009133174 -0.0016543558 0.0012754422 0.013349062 -0.03486868 0.013620792 0.0019627975 -0.026251769 0.026218489 0.03431135 -0.01726689 -0.01768558
man/woman -0.011207755 -0.0034046706 -0.0083733145 0.01857055 0.025469348 -0.009350479 -0.04735724 0.004428931 0.016800506 -0.035487864 0.026149845 0.014327454 0.021375911 0.042037435 0.022599982 -0.019579854
sons_of_sojourners 0.011339273 -0.014186506 -0.010162038 0.008546976 0.020639338 -0.0013046352 0.0049449354 -0.015735717 -0.0077910405 -0.03250874 -0.028732402 0.007490486 0.019092849 -0.01166142 0.020911407 0.0058095423
poor 0.035122488 6.9481204e-05 -0.02397943 -0.013939048 -0.017341672 -0.0065600476 0.006599242 0.012865543 -0.0003727235 -0.035280105 0.008021201 -0.020612687 -0.027069911 0.049229935 0.024367882 -0.0035888958
granddaughter_of_woman 0.029758815 0.02732784 -0.002583141 0.0119309835 0.007302077 0.015625093 -0.012925068 -0.0061130887 0.01613784 0.019981058 -0.0069330935 -0.007862133 0.011956076 0.033713218 0.004151154 -0.001653784
woman_and_her_daughter 0.013352783 -0.0012650948 -0.0062336517 -0.022841834 -0.023844635 0.0002899745 -0.039867107 0.030893613 -0.019192543 -0.037497506 -0.03053609 0.0013859927 -0.010295721 0.039633792 -0.023764882 -0.0054425555
blind -0.026759302 0.036123183 -0.029302256 -0.022127548 0.011005435 -0.014038998 -0.038026556 -0.020677365 -0.012243909 -0.007643917 -0.029665485 0.01079834 0.017809313 0.004133989 0.029454827 0.035778932
elderly -0.019082466 0.011811325 0.025492953 0.01568104 0.0049929535 -0.006348554 0.016047895 -0.014482609 0.022119125 -0.020307494 0.01888287 0.031768523 -0.027820753 0.0054931627 0.013525579 -0.019509781
sister_of_woman 0.027592396 -0.0034196062 -0.00330327 -0.016250946 -0.010555609 0.025568854 -0.021254554 0.019966157 -0.016524931 -0.030972572 -0.005646687 -0.0031558939 0.024712626 0.041700643 0.024141492 -0.0035725406
daughter 0.008798679 0.09756636 -0.07255524 0.073478654 0.050953854 -0.024524186 -0.11001571 0.009032969 -0.07763328 -0.10887103 -0.02279817 0.03263756 0.010749018 0.14534444 0.037261005 0.038497753
deaf 0.012373971 -0.025310276 0.0012892472 -0.0031366071 0.03299696 -0.02367688 -0.032532044 0.01978127 -0.018326888 0.005014725 0.026993243 -0.004671547 0.024127599 0.02356522 0.019256594 -0.005270019
woman -0.005535138 0.037203133 0.021583654 -0.015907118 0.023469279 0.026011018 -0.04459193 -0.021200102 -0.033937026 0.012302262 0.02397269 0.020306174 -0.018601403 0.018728618 -0.022811469 0.009761319
rich -0.024542512 0.018855594 -0.0023269576 -0.017962916 -0.0036114864 0.028994696 0.022200296 0.018228838 -0.021775888 -0.01475637 0.017986631 0.007885703 -0.014969122 -0.0029772597 0.022965467 -0.026347646
witnesses 0.016922018 0.015438224 0.01942362 -0.009587236 0.028817749 0.013664425 -0.016155018 0.0020678132 -0.025082935 -0.014486953 -0.019846326 0.008324633 0.023990676 0.0070726797 -0.030357756 -0.0013440681
son_of_brother -0.006331814 0.026771955 -0.023251109 0.030051997 -0.00723914 0.028527366 -0.022540612 -0.019963644 0.008043585 0.006116044 -0.027053757 0.015828915 -0.029515183 0.0031985552 0.007273611 0.0028544741
brother's_brother 0.01328449 0.030625049 -0.0051212567 -0.022794884 -0.020989344 -0.0115438 0.018118095 0.0042110737 0.017441688 -0.0197617 0.012957233 -0.012385445 0.008089669 -0.020964295 0.025558498 0.022178508
husband -0.015624542 0.019253287 -0.0074788267 -0.013967455 0.031178668 -0.020378597 0.029133221 -0.0053898394 0.017307013 0.022200646 -0.01748436 -0.0055169417 0.023592405 -0.026843362 -0.011231715 0.004461932
no-one 0.012404002 0.022251291 0.025119323 -0.01423197 -0.019190567 -0.023355005 -0.026261823 -0.01728892 0.025642883 -0.014975276 0.02797898 -0.016906638 -0.007293171 0.0068441597 -0.007701121 0.017303094
brother's_uncle 0.02644596 0.0042057275 0.0055656633 0.01063557 -0.014901789 0.026790949 -0.01225055 -0.029607657 0.024180545 -0.019840946 0.008708313 0.006610897 -0.0134807415 0.0013088514 0.021617912 -0.02375456
lay-person 0.010698621 0.0064614248 0.019418528 -0.01694421 -0.0041218325 0.00094186974 0.023439812 -0.011243008 0.0038000045 0.0024143434 0.0025348992 -0.025116106 0.011445062 -0.010873636 0.0037703228 0.0005060606
man 0.017570788 -0.00868033 -0.018956222 -0.009781485 -0.01344159 -0.01749112 -0.024341635 -0.02954645 0.0060289055 -0.025348268 0.011384887 -0.026383238 -0.00970373 0.023442643 0.024915272 0.019812487
